FANN_FLO_2.1
num_layers=3
learning_rate=0.700000
connection_rate=1.000000
network_type=0
learning_momentum=0.000000
training_algorithm=2
train_error_function=1
train_stop_function=0
cascade_output_change_fraction=0.010000
quickprop_decay=-0.000100
quickprop_mu=1.750000
rprop_increase_factor=1.200000
rprop_decrease_factor=0.500000
rprop_delta_min=0.000000
rprop_delta_max=50.000000
rprop_delta_zero=0.100000
cascade_output_stagnation_epochs=12
cascade_candidate_change_fraction=0.010000
cascade_candidate_stagnation_epochs=12
cascade_max_out_epochs=150
cascade_min_out_epochs=50
cascade_max_cand_epochs=150
cascade_min_cand_epochs=50
cascade_num_candidate_groups=2
bit_fail_limit=3.49999994039535522461e-01
cascade_candidate_limit=1.00000000000000000000e+03
cascade_weight_multiplier=4.00000005960464477539e-01
cascade_activation_functions_count=10
cascade_activation_functions=3 5 7 8 10 11 14 15 16 17 
cascade_activation_steepnesses_count=4
cascade_activation_steepnesses=2.50000000000000000000e-01 5.00000000000000000000e-01 7.50000000000000000000e-01 1.00000000000000000000e+00 
layer_sizes=10 6 2 
scale_included=0
neurons (num_inputs, activation_function, activation_steepness)=(0, 0, 0.00000000000000000000e+00) (0, 0, 0.00000000000000000000e+00) (0, 0, 0.00000000000000000000e+00) (0, 0, 0.00000000000000000000e+00) (0, 0, 0.00000000000000000000e+00) (0, 0, 0.00000000000000000000e+00) (0, 0, 0.00000000000000000000e+00) (0, 0, 0.00000000000000000000e+00) (0, 0, 0.00000000000000000000e+00) (0, 0, 0.00000000000000000000e+00) (10, 4, 5.00000000000000000000e-01) (10, 4, 5.00000000000000000000e-01) (10, 4, 5.00000000000000000000e-01) (10, 4, 5.00000000000000000000e-01) (10, 4, 5.00000000000000000000e-01) (0, 0, 0.00000000000000000000e+00) (6, 4, 5.00000000000000000000e-01) (0, 0, 0.00000000000000000000e+00) 
connections (connected_to_neuron, weight)=(0, 2.18564701080322265625e+00) (1, -1.19456672668457031250e+00) (2, -3.49446368217468261719e+00) (3, -9.06826555728912353516e-01) (4, 1.68576896190643310547e+00) (5, -1.78743815422058105469e+00) (6, -2.06883764266967773438e+00) (7, -1.84291446208953857422e+00) (8, 8.27480033040046691895e-02) (9, 2.01320791244506835938e+00) (0, 3.60567116737365722656e+00) (1, -1.66487753391265869141e+00) (2, -4.86260366439819335938e+00) (3, -1.85820412635803222656e+00) (4, 3.13945794105529785156e+00) (5, -2.15391111373901367188e+00) (6, -4.98184967041015625000e+00) (7, -2.21292233467102050781e+00) (8, -8.21453854441642761230e-02) (9, 4.15504598617553710938e+00) (0, 2.63572859764099121094e+00) (1, -1.46009826660156250000e+00) (2, -3.64084458351135253906e+00) (3, -1.12169730663299560547e+00) (4, 1.96938467025756835938e+00) (5, -1.94001030921936035156e+00) (6, -2.32565784454345703125e+00) (7, -2.05482578277587890625e+00) (8, -2.22587287425994873047e-02) (9, 2.44107866287231445312e+00) (0, 3.40289187431335449219e+00) (1, -1.46041059494018554688e+00) (2, -4.86777257919311523438e+00) (3, -2.11441397666931152344e+00) (4, 3.30355024337768554688e+00) (5, -1.69825279712677001953e+00) (6, -6.26147603988647460938e+00) (7, -1.94724738597869873047e+00) (8, 1.19196176528930664062e-02) (9, 4.29285764694213867188e+00) (0, 2.54547894001007080078e-01) (1, -4.63354617357254028320e-01) (2, -8.86699914932250976562e-01) (3, -6.40926718711853027344e-01) (4, 1.45070537924766540527e-01) (5, -6.76889538764953613281e-01) (6, -6.89179360866546630859e-01) (7, -8.96381258964538574219e-01) (8, 1.42190605401992797852e-03) (9, -5.90818107128143310547e-01) (10, -3.99546885490417480469e+00) (11, -6.35175943374633789062e+00) (12, -4.43391561508178710938e+00) (13, -6.97962617874145507812e+00) (14, -8.08172941207885742188e-01) (15, 7.75615072250366210938e+00) 
